-0.104736,-0.195027,-0.108022,-0.0499577,0.00735108,-0.118218,0.214147,0.018177,0.357862,-0.250675,-0.0974737,0.243624,0.242978,-0.0458111,0.1794,0.103464,0.0204629,0.0455207,0.0275157,-0.0109107,-0.00106054,-0.110799,-0.0875223,0.000589845,-0.394339,0.115712,0.0721067,-0.128938,0.130869,0.0503335,0.0781085,-0.0633499,0.230694,0.665187,-0.366255,-0.0112935,-0.227421,0.158983,-0.187108,0.220382,-0.0264526,0.229551,0.143185,-0.0628704,-0.396277,-0.295943,-0.329827,0.106648,0.112905,-0.168288,0.122769,0.151781,0.635586,-0.263931,0.186395,0.0357007,-0.274602,-0.234739,0.159795,-0.040203,0.0277931,-0.177344,-0.0630209,-0.1548,0.0362257,0.425821,0.112226,-0.417648,-0.24708,0.21775,0.0357261,0.0864267,-0.0979932,0.0683482,0.167131,0.102692,0.368014,0.384394,-0.00566303,0.0240222,
-0.158634,-0.144514,0.245892,-0.120581,0.0742286,-0.0679017,0.136239,-0.0542714,0.0169495,0.5705,-0.124244,0.261984,0.253994,0.229366,0.135929,0.183885,0.0125177,0.00545963,-0.000792053,0.0666873,0.577679,0.16864,0.0717197,-0.0808654,0.602883,-0.0752543,0.0488186,0.118467,-0.154735,0.100627,0.218192,0.31198,0.120735,0.237509,0.411604,-0.102092,0.350988,0.0352136,0.290002,0.0482772,0.296749,0.148621,0.0418361,-0.022159,0.0453417,-0.0780193,0.281441,-0.0748437,0.124248,0.0324926,0.268259,0.281892,0.155903,0.291835,0.11968,0.285613,0.320885,0.0293595,0.208699,0.0168257,-0.0959009,0.0816465,0.0340357,0.0809688,0.114613,0.350045,-0.0238102,0.166985,-0.139351,0.239298,0.0577702,0.0570044,-0.10948,-0.0202258,0.0462446,0.366098,0.220468,0.059224,-0.0288439,0.247798,
0.0944341,0.19596,-0.30787,0.208787,-0.125806,-0.00996899,-0.432894,-0.0943662,-0.133492,-0.219606,-0.0182642,-0.492008,0.25041,0.0334669,-0.135863,0.118707,-0.0310028,-0.157439,0.0164733,-0.0173956,-0.0623698,-0.340228,-0.242774,0.0982676,-0.470199,-0.0196002,0.0268947,-0.168896,-0.0667431,0.00409557,0.468612,-0.451192,-0.0585911,-0.117154,-0.643767,0.111337,-0.172582,-0.265074,-0.15126,-0.0585772,-0.130465,-0.455572,0.0928815,0.121161,0.061814,-0.0491015,-0.126784,0.231619,0.313303,-0.0401158,-0.325002,-0.429904,-0.529368,-0.541936,-0.120037,0.0516891,-0.153197,-0.068534,0.207668,-0.0903699,-0.00900412,-0.322599,0.0450064,0.0160263,-0.0975987,-0.259307,0.0229317,-0.0409588,-0.169053,0.022905,-0.113885,0.0539989,0.16473,0.058278,-0.379905,-0.105565,-0.797066,-0.442769,-0.0110016,-0.148897,
0.00456071,-0.0448382,-0.657745,0.0982504,0.0834453,-0.349869,-0.29283,-0.0555046,0.00959033,-0.620631,-0.00106135,-0.598462,-0.598842,-0.140837,0.0493891,-0.0113361,0.119747,0.148441,-0.156378,0.00700416,0.179612,-0.22977,-0.159952,0.113961,-1.25444,0.0421369,0.0275121,-0.33906,0.0146235,-0.137546,-0.924844,-0.638181,-0.266576,-0.147013,-0.765299,-0.123276,-0.222845,-0.153551,-0.339733,-0.0423081,0.157424,-0.225517,-0.641333,0.154692,-0.70335,-0.0854072,-0.859684,-0.0195274,-0.362266,-0.127379,-0.142507,-0.39989,-0.430979,-0.590126,-0.562075,0.0759355,-0.561117,-0.144787,-0.162895,-0.121198,0.110224,-0.849134,-0.225454,-0.00224831,0.0311378,-0.253374,0.0358029,-0.655316,-0.169251,-0.0395829,0.0463907,0.0395365,-0.431872,-0.10852,-0.0626269,-0.189767,-1.1239,-0.191042,-0.0656712,-0.273119,
-0.0444824,0.0792501,-0.354698,0.157007,0.0886598,-0.168949,0.345727,0.116016,-0.244307,0.446277,0.0806065,0.559456,0.492237,-0.0895292,0.378149,-0.0222975,-0.0255751,-0.0282112,0.174015,0.10082,-0.108492,0.289839,-0.0621675,0.0565937,0.318581,0.0697278,0.0674253,0.0360158,-0.149261,-0.0372691,0.234664,0.529704,0.57672,-0.474936,-1.74312,0.0504018,-0.381716,-0.516285,-0.296239,-0.487388,-0.203878,-0.119174,0.281742,-0.0593077,0.491671,-0.30721,0.525937,0.0383556,0.0812945,0.103337,0.110601,0.328939,0.503613,-0.0565276,-0.186399,-0.0986804,0.447114,0.107184,0.218721,0.0364376,-0.142652,0.338969,-0.0851311,-0.0578428,-0.0248418,-0.147427,0.125067,0.0786591,-0.748222,-0.258026,0.174681,-0.0479339,0.216691,-0.0390159,-0.227996,0.704671,0.226022,-0.0077911,0.260157,0.545733,
-0.0462466,-0.0740297,0.851935,0.0788192,-0.021136,0.317371,-0.365409,0.184745,0.176697,-0.458056,-0.0161117,-0.2003,-0.187107,0.124737,-0.296571,-0.134245,-0.139357,0.123532,0.0131212,-0.0485946,-0.072253,0.76192,-0.0352265,-0.0431914,0.0653779,-0.187693,0.202656,0.103405,0.138633,0.0914444,0.214774,-0.72635,0.418376,-0.650608,0.234149,0.268266,-0.230358,0.0635929,-0.199963,-0.750712,0.152012,0.272518,0.346918,-0.0176474,0.0198629,0.520498,0.239025,-0.286676,0.224859,-0.144899,-0.123621,-0.143177,-0.0807829,0.248983,0.191429,-0.19001,-0.156831,-0.0636014,0.0856513,0.0666565,-0.163782,0.531875,0.00812481,0.0881852,-0.0166005,-0.235853,-0.089715,-0.282639,0.672151,-0.23442,-0.332527,-0.0522133,0.043299,-0.0982263,0.564788,0.140975,0.507222,0.0766689,-0.0721636,-0.341978,
-0.0151668,-0.0402296,-0.285443,0.120966,-0.0686989,-0.017411,0.783019,-0.106905,0.125959,-0.695794,0.0289858,-0.46619,-0.0869733,-0.0305392,-0.274323,0.0598523,-0.0845666,0.0460188,0.0350161,0.182525,-0.164177,-0.0397595,0.0851782,0.0523286,-0.331201,0.0854378,0.171859,0.320712,-0.0155848,0.0309774,-0.543669,0.422282,-0.214872,1.77236,0.55261,-0.107262,0.0925361,0.556969,0.0741716,0.144968,0.0436392,0.0496805,-0.152561,-0.0231801,-0.319934,-0.221858,-0.327946,-0.162769,-0.461248,-0.0856111,-0.00581236,-0.249362,0.0458684,-0.0800244,0.450079,0.120591,-0.154558,0.0913051,0.0964246,0.0945919,-0.166764,-0.171966,0.13832,0.131525,0.141248,-0.185064,-0.028542,-0.436805,0.0579869,-0.312962,-0.0217753,-0.02196,-0.344023,-0.0290492,0.598438,-0.498679,0.455723,1.06387,-0.0359355,0.0674244,
0.0539926,-0.116719,0.721721,-0.0371857,0.110942,-0.262211,0.394708,0.00889362,-0.0730172,0.302352,0.130015,0.145232,-0.226251,0.0184651,-0.454223,0.110384,0.205015,-0.0162226,-0.23491,-0.214961,-0.155403,0.0491673,-0.277214,0.197177,0.312267,-0.0764109,0.0525679,-0.405588,0.0577513,0.150353,0.0324317,0.41052,-0.453512,-0.292501,0.520544,-0.321017,0.169503,0.14227,0.519503,0.360866,-0.314584,-0.63116,0.101152,0.229539,0.334139,0.0632423,0.00081741,0.108549,0.057174,-0.147453,0.599292,-0.184742,0.125553,0.516947,-0.288842,0.148977,0.327829,-0.27723,-0.00497747,-0.119144,0.156179,0.427974,0.0742548,-0.234573,0.0191849,-0.223082,-0.173514,0.38053,0.0603499,0.410014,-0.331835,0.121972,-0.518849,-0.0569552,-0.0844076,-1.51304,0.204088,-0.302445,0.00838388,-0.716786,
-0.302195,-0.346478,-0.0821788,0.161054,0.0674257,-0.159125,0.110355,0.115356,-0.173461,-0.0699583,-0.0569226,-0.115278,0.184117,0.013191,-0.727088,-0.0337413,0.191255,-0.156306,0.00185774,0.0503555,-0.0610715,0.0566347,-0.0148172,0.00265103,0.267211,0.00326889,-0.137336,0.176926,0.114691,0.0575051,-0.164853,0.385239,0.106909,1.04726,0.317099,-0.0438114,0.1746,0.275392,-0.0219773,0.124237,0.112901,0.333106,-0.736867,0.0435821,0.124341,0.132733,-0.322908,0.0135014,0.160318,0.0325289,0.286516,0.196378,-0.228217,0.258751,0.105693,-0.330838,0.0204551,-0.0363992,0.0591275,-0.00752436,0.112181,-0.176029,-0.0165835,-0.000649752,-0.0374823,-0.000740628,-0.040765,-0.110581,-0.0197953,-0.534304,0.226296,0.049627,-0.443254,-0.13857,0.289627,0.263085,0.291366,0.616528,0.0320162,-0.209972,
0.0722001,-0.118898,-0.0415632,0.0499921,0.149995,-0.0963237,-0.494683,0.0373295,-0.147569,0.0267917,0.0236072,-0.631047,0.14174,-0.049416,-0.20257,0.11095,0.0330934,-0.0131233,-0.0988875,0.153951,-0.116854,-0.486232,-0.106795,-0.0455467,0.0857114,0.0898389,-0.0395186,-0.286874,0.014321,0.0948337,0.708368,-0.492072,-0.400135,0.200057,-0.765759,0.0863134,-0.361231,-0.0372675,-0.369737,-0.231228,-0.142244,-0.353293,0.314413,-0.123874,0.442471,-0.137012,-0.272357,-0.0731641,0.089409,0.155844,-0.281416,-0.0605645,-0.47301,-0.426559,-0.360391,-0.0906629,-0.103723,0.0925256,0.0150222,-0.0668905,-0.0327185,-0.23688,-0.0439619,-0.0286318,0.131687,-0.199157,-0.104864,0.0568934,-0.383409,-0.100369,-0.232446,-0.155389,0.214941,-0.104359,-0.376601,0.410052,-0.921213,-0.622045,-0.0122949,-0.0344587,
-0.115018,-0.0913396,-0.409094,0.0835336,-0.0191614,-0.0679702,-0.407911,0.105411,-0.110837,-0.56415,-0.181993,-0.402874,-0.169432,0.225902,-0.0794807,-0.054493,-0.0694881,-0.165233,-0.0540079,0.0184156,0.0382047,-0.206657,-0.24412,-0.0806226,-0.772191,0.100673,-0.0822368,0.0423215,0.107963,0.0933505,0.0236148,-0.344133,-0.211517,-0.0338149,-0.485641,0.0171126,-0.185559,0.0186276,-0.305689,-0.208208,-0.290687,-0.263809,-0.412737,-0.105846,-0.343218,-0.17351,-0.217626,0.118401,-0.0963549,-0.148008,-0.376816,-0.424891,-0.442123,-0.583345,-0.152189,-0.203615,-0.387876,0.0607138,0.0876377,0.038185,0.0486923,-0.552084,0.0909225,-0.0162746,0.0969458,-0.245741,-0.0353801,-0.259544,-0.26866,-0.104491,-0.107305,-0.0584314,-0.00845409,-0.016589,-0.245183,-0.323762,-0.748982,-0.619062,0.0312891,-0.0664027,
-0.12297,-0.0989269,0.0717011,0.363033,-0.0580683,0.398054,-0.288383,0.130265,0.0113516,0.222104,-0.0993288,-0.2245,-0.0676477,0.11016,0.06867,-0.101783,0.257986,-0.0920699,-0.012218,0.0780929,0.00471037,-0.222016,0.277588,0.0488734,-0.446608,0.0239242,-0.140376,0.0105487,-0.189874,0.192627,-0.433904,-0.299066,-0.0980669,-0.180989,-0.575714,0.0666472,0.0766121,-0.168287,-0.230271,-0.0933492,0.821266,0.165052,0.0758165,0.0941645,-0.0303081,0.0156612,-0.140816,0.150817,0.204176,-0.130886,0.0475657,-0.18165,-0.558026,-0.630296,-0.0891754,0.158712,-0.589715,0.00812734,-0.108869,0.0715953,0.22297,-0.0174658,0.0627597,0.0331557,0.0597829,0.27533,-0.0747988,-0.082406,-0.218259,0.0921591,-0.0977512,-0.0534187,0.112836,-0.300072,-0.0665867,-0.269514,-0.222333,-0.23471,-0.0818537,-0.210957,
-0.047752,0.222207,-0.378772,-0.0779642,-0.0683235,-0.167133,-0.382393,0.201359,0.137251,0.68113,0.0163484,0.0291809,0.282358,-0.0787193,0.259809,0.179372,-0.017376,0.0423751,-0.116981,0.149883,-0.0477254,-0.558734,-0.178074,0.0597071,0.492402,0.130188,0.00553343,0.0509458,0.0669903,-0.0351677,0.811533,0.107394,-0.509852,0.00567853,-0.258282,0.0581573,0.313259,0.0808158,-0.0145,0.124488,-0.419364,-0.30903,0.229472,0.23522,0.48555,0.0583664,0.266356,-0.0286575,0.0859183,0.150213,-0.117101,-0.469286,-0.244672,0.245834,-0.0349536,0.113749,0.358431,-0.0534655,-0.132732,-0.0840342,-0.0332981,0.448827,0.137952,-0.0349947,0.00191126,-0.180937,0.00448521,0.618698,-0.155574,0.0739508,0.169255,-0.0709136,0.327058,-0.112939,-0.47024,0.249995,-0.18311,-0.759149,0.218363,0.415695,
0.0874816,0.306473,0.0175684,-0.00394108,0.0332165,0.0694076,0.30068,-0.154907,-0.198768,0.398593,0.174463,0.144609,0.172257,0.0594975,0.219892,-0.00504696,0.000871847,0.203496,0.164416,0.00879449,0.0905546,-0.0930993,0.0704907,0.119837,0.599722,-0.0942943,-0.112905,0.226832,0.0593746,-0.0792452,0.654174,0.398109,-0.375979,0.0824451,0.321195,-0.111629,0.378868,0.021612,0.0958936,0.110426,-0.164128,0.293809,0.189961,-0.100245,0.472823,-0.134439,0.595373,-0.207284,0.120139,0.375433,-0.176935,0.384601,-0.10926,0.248696,-0.0508865,0.164909,0.292822,-0.123392,-0.137308,0.0978452,0.200086,0.134962,0.141678,-0.0863194,0.00424856,-0.430532,0.0744847,0.314107,0.0988342,-0.22633,0.48045,0.0216081,0.596222,0.0589275,-0.0801803,0.718656,0.00578172,-0.406503,-0.0850125,0.329273,
-0.39497,-0.0339302,-0.133049,-0.0935002,-0.147642,0.0432004,-0.292447,0.141966,0.149446,-0.397128,-0.124437,-0.287972,0.107793,0.227147,-0.096836,0.0658782,-0.118289,0.0548721,-0.0453121,0.0542459,0.069708,-0.146589,-0.20675,-0.207715,-0.676654,0.119032,0.0323548,-0.170797,-0.0542356,-0.107568,-0.157615,-0.433799,-0.304071,-0.379904,-0.293483,-0.0573181,-0.22214,0.181993,-0.205271,-0.239932,0.027477,-0.104718,-0.150739,-0.0546966,-0.269437,0.181136,-0.316132,0.101962,-0.10701,0.0321466,-0.0224914,-0.556101,-0.306122,-0.35608,-0.0525972,0.0815752,-0.199444,-0.0578958,0.072267,0.0504699,-0.114294,-0.421825,0.0747652,0.110511,0.0339889,-0.000832512,0.0581279,-0.172751,-0.220717,-0.0261748,-0.0392539,0.228079,-0.108543,-0.0502651,0.10112,0.0520492,-0.656604,-0.262085,0.00104986,-0.32403,
0.0700275,-0.09687,0.268714,-0.077697,-0.156861,0.0290085,0.309344,0.0364633,0.153002,0.0361749,0.0227632,0.0102243,-0.0579319,-0.123037,0.215724,-0.00739981,0.0673157,0.0594633,0.130418,-0.0843646,0.331227,0.25173,0.178042,0.0975268,0.397721,-0.0875632,-0.150623,0.0390011,-0.00900466,-0.150376,0.0901361,0.23131,0.112272,0.382454,0.0331061,-0.160476,0.160448,0.157028,-0.0219369,-0.175718,-0.179551,0.229772,0.0528875,0.0104428,-0.0780784,-0.0638752,0.116222,-0.152741,-0.0074282,-0.0580111,0.329542,0.301223,0.237233,-0.0838903,0.0468822,0.0681752,0.106612,0.0196889,-0.117818,0.117578,-0.108836,-0.0583422,0.0166331,-0.227992,0.018348,0.37736,0.0437099,0.0762832,0.0010292,0.054011,0.0752464,0.0200942,-0.0912519,0.0335975,0.323126,0.130632,0.0933241,0.166113,-0.204431,0.275122,
-0.082955,0.431472,-0.0359383,-0.0918112,0.211191,-0.104818,0.613052,0.0642962,-0.306333,0.360219,-0.128914,0.118963,0.232847,-0.173013,0.254231,-0.024851,-0.135415,0.0297823,-0.140877,-0.171219,0.097766,-0.116078,0.555256,-0.0761451,0.601804,0.0851744,0.100538,0.204656,-0.19728,0.077558,0.232025,0.427604,-0.219844,0.170229,0.650566,0.320438,0.0272907,-0.446036,0.452244,0.217342,0.154964,-0.125831,-0.138,-0.0664831,0.269984,-0.0908847,0.433706,0.0792867,0.0809411,0.32991,-0.100591,0.515389,0.371194,0.262271,-0.0298828,-0.075673,0.320362,-0.0751607,0.285951,0.0878925,-0.182795,0.34416,-0.0757895,0.081279,-0.0252641,-0.678195,0.151344,0.025216,-0.0181381,-0.654836,0.652409,0.0423144,-0.269613,0.0683969,-0.653345,1.03408,0.295608,0.0435161,0.0176178,0.2457,
-0.150286,-0.289832,-0.0828443,0.0916464,0.0705444,-0.277133,0.290666,0.0759907,0.0257312,0.146511,-0.0404431,0.0958945,-0.0633092,-0.101349,-0.231991,-0.125116,0.242792,0.148338,-0.00467553,-0.0938439,0.0854743,-0.13828,0.00464288,0.0252765,-0.211689,0.0215521,0.0133184,-0.00507238,-0.139733,0.0882568,-0.0251833,0.153144,0.00451141,0.0254041,0.400535,-0.13314,0.319264,-0.0334822,-0.0646863,-0.143398,-0.21585,0.00343152,-0.313904,-0.0440865,0.08868,0.265009,-0.0723213,-0.0896622,0.0618674,0.254058,0.119046,-0.33525,-0.468013,0.418039,0.0531886,-0.055268,0.274198,-0.108666,-0.08748,0.111241,-0.0159501,0.156018,0.0751736,-0.0902159,0.0174423,-0.117596,0.0386315,0.486718,0.0816653,-0.0785091,0.285119,0.124999,-0.0523145,0.062025,-0.176242,-0.103164,0.381101,0.280152,-0.0208497,-0.311008,
-0.0722644,0.644047,0.650716,-0.0772628,0.20579,0.50398,-1.16022,0.0126069,-0.247515,-0.710325,0.0309263,-0.538725,-0.166302,-0.0529238,-0.517176,0.133537,0.0778335,-0.0353654,0.117024,0.00856213,-0.272131,0.638279,-0.109558,-0.127895,0.201843,0.0275358,0.137351,-0.139971,-0.207574,-0.198925,-0.354187,-0.520341,0.25467,-0.671009,1.06236,-0.0851563,-0.0183999,0.445204,0.403123,0.438317,-0.307303,-0.0134674,0.0160915,-0.156456,-0.390126,-0.0730358,-0.527723,0.0124374,0.106104,-0.117289,-0.466578,-0.620956,-0.287247,0.667162,-0.182562,-0.128071,-0.468027,-0.157363,0.0238048,0.18738,-0.115772,0.854103,0.222883,-0.00184517,-0.0318909,-0.369888,0.137653,-0.432218,0.359487,-0.120375,-0.200602,-0.029599,-0.243117,0.100364,0.0587109,-0.122148,0.100065,-0.24958,-0.105227,-0.33848,
-0.222759,-0.0337353,-0.00720963,-0.0640127,-0.0789251,0.139523,0.32953,0.0681349,-0.300403,0.290338,-0.0514736,0.669064,0.0159861,0.11067,0.378039,0.122189,-0.127528,0.00576546,0.0687748,0.118216,-0.0862622,-0.133305,0.56593,-0.0107932,0.581385,-0.0162462,-0.0529903,0.187746,-0.00744726,-0.101239,0.354303,-0.0596507,0.155722,-1.19,-0.117555,0.312297,0.0443052,0.271274,0.441333,-0.252685,0.84299,0.0203069,0.258125,-0.128849,0.385327,0.0948043,-0.213992,-0.112663,-0.267494,0.318203,-0.68447,0.500162,0.331275,0.0313233,0.482322,-0.0712111,0.0250029,0.130564,0.0175243,-0.0579379,-0.0616271,-0.248247,0.0388824,0.141739,0.0528064,0.56653,-0.0406035,0.015682,0.180943,0.725228,0.162141,0.0306049,0.311221,0.129437,0.227393,-0.627702,0.301948,-0.161579,-0.0672856,0.111504,
-0.125797,-0.0845493,0.382174,-0.0145725,0.0718306,-0.167139,0.535207,-0.0269194,0.0143346,0.213282,0.0244001,0.204371,0.0329496,0.136257,0.0503195,-0.111119,-0.136782,-0.0725457,0.0800227,0.0250516,0.234956,0.0878978,0.00909956,-0.125818,0.601552,0.0410132,-0.0481505,0.194969,-0.0565638,0.145412,0.246857,0.0797335,0.0856967,-0.475093,0.59869,0.319593,0.265117,0.0378332,0.223619,-0.0507086,0.447414,0.0868555,0.031825,-0.00984779,0.127096,0.0302805,0.440415,0.125357,0.290939,0.244376,-0.0884783,0.518131,0.00158057,0.26634,0.157938,0.0920446,0.351534,0.104017,0.123274,-0.107369,-0.0650313,0.107396,0.0557056,-0.0170905,-0.0834536,-0.132607,-0.028516,0.31993,0.0479876,-0.124262,0.291841,-0.0125024,0.0120722,-0.133817,0.203625,0.432845,0.239035,-0.194977,0.017982,0.325351,
0.279891,-0.182809,0.347691,0.0885399,-0.0527999,0.441876,0.555471,-0.129596,0.333549,0.173948,-0.277521,0.0109777,-0.0308891,0.00384485,0.236176,0.000405615,-0.158942,-0.0477861,-0.106783,0.167946,-0.0626873,0.145576,0.135918,0.17953,0.275051,0.0360866,0.128369,-0.0468895,0.0389462,0.127426,0.189999,0.281786,0.000353855,-0.0959054,0.853886,-0.140511,0.355606,0.214331,0.242817,0.359947,-0.168826,-0.0640488,0.289239,0.0262928,0.181445,0.17575,0.132387,-0.0451001,0.0330884,0.0629721,0.347142,0.172556,0.0859336,0.453378,-0.0489681,0.172477,0.208268,0.126115,-0.0553266,0.26461,-0.00218248,0.225163,-0.0874952,-0.184543,0.0530981,-0.206885,0.122236,0.290045,0.30353,0.126826,0.0906669,-0.0895266,0.0883467,-0.0711422,0.232662,0.12328,0.345461,-0.140413,-0.0638514,0.183098,
-0.0762217,0.0660449,-0.248623,0.0481434,0.156975,-0.0685609,-0.498994,0.112963,0.00630238,-0.41667,-0.0676586,-0.256001,-0.282904,-0.107077,-0.424287,0.163861,-0.135531,-0.00199085,-0.0633977,-0.155824,-0.144567,-0.257942,-0.184721,-0.0513554,-1.04726,-0.0629445,-0.114796,-0.229709,0.0243913,-0.046893,-0.592785,-0.50398,-0.285843,-0.290593,-0.43384,-0.0159015,-0.36974,0.0519782,-0.371646,-0.282926,0.077996,-0.336116,-0.48922,0.0978178,-0.564157,-0.135689,-0.705928,-0.0872824,-0.428574,0.194547,-0.32838,-0.35598,-0.507328,-0.62741,-0.284868,0.0858118,-0.413436,-0.232029,-0.0217196,-0.133905,-0.116083,-0.718362,0.168086,-0.00636567,0.213176,-0.365412,-0.0882188,-0.344562,-0.0969738,-0.185544,-0.167325,-0.044221,-0.49865,-0.00578518,-0.278229,-0.324752,-0.708432,-0.402645,-0.0389049,-0.286011,
-0.090147,0.278951,-0.805811,-0.203746,0.214764,0.395185,-1.3673,0.06183,0.0732298,-0.304267,0.0636872,0.151676,0.446606,-0.0756583,-0.970674,-0.106344,0.144758,0.0310251,-0.105136,-0.00605436,-0.231926,0.920263,0.201401,0.0847588,-0.879021,0.0388,-0.266798,0.196939,0.0616397,0.0443201,0.114065,0.73665,-0.203756,1.13503,0.405361,0.160963,0.362202,-0.188724,0.653955,-0.401886,-0.0535594,-0.117697,0.403494,0.284749,-0.673523,0.755379,0.515193,-0.241967,-0.570494,-0.33631,0.301078,0.135482,0.420749,0.841065,-0.717961,-0.174709,0.153239,-0.113924,-0.124741,-0.108787,0.0884904,1.11627,0.110299,-0.0817521,0.158155,-0.141241,0.248894,0.840538,1.58239,-0.513167,-1.00331,-0.0554853,0.315755,0.109053,0.111919,-1.38105,0.388961,0.845978,-0.115705,-0.475289,
0.0536842,-0.113892,0.0443591,-0.0354661,-0.0523219,0.0567055,0.0066971,-0.137018,0.14818,0.160399,0.194718,0.293783,-0.749768,0.0187781,0.787709,-0.00362716,0.0600697,-0.171685,0.0575155,0.120527,0.0485757,0.0772313,-0.158705,0.165182,0.377148,-0.0892611,0.137297,0.0904639,-0.0264949,-0.00222214,0.327853,-0.207273,0.373452,-0.365861,0.0259186,0.0571456,0.159636,-0.0375981,-0.0220598,0.330622,-0.0357692,-0.0491594,0.587835,-0.0384651,0.221389,-0.0570255,0.583827,0.0223841,-1.4326,0.046634,0.153948,-0.768351,0.419756,0.134497,-0.18554,-0.00950493,0.0661425,-0.103372,0.0578364,-0.0473537,-0.055419,-0.0485813,-0.124782,-0.0619059,-0.13677,0.407775,0.204823,0.250474,0.0684619,0.217682,-0.0471637,-0.0106299,0.236898,-0.109286,-0.0370894,0.201069,0.298263,-0.28974,0.0965826,0.425771,
0.0806428,0.0260255,0.252757,0.0516234,0.0907135,-0.210543,0.216395,0.0130298,0.158094,0.393784,-0.0831582,0.191402,0.119351,0.150862,0.303445,-0.112677,-0.0444654,-0.0416475,0.128514,-0.0350789,0.0293113,0.54222,0.15745,0.0249369,0.407021,-0.107267,0.0107105,0.190094,0.0787294,0.0275628,0.122916,0.340076,-0.0337292,0.563177,0.734295,0.00361375,0.510716,0.126114,0.275708,0.545706,-0.211324,0.185157,0.113686,0.0776453,-8.61393e-06,-0.106871,0.141874,0.0978246,0.0100978,-0.156082,0.381947,0.262828,0.211347,0.364886,0.0664961,-0.127893,0.316558,0.0559362,-0.0458613,-0.00317964,-0.0504405,0.218533,-0.285184,0.00467788,-0.116041,-0.170463,0.147219,0.155788,0.143228,-0.0551677,0.389947,-0.126927,-0.448068,-0.0318495,0.0720906,0.264475,0.469635,0.333494,-0.0555561,0.00707559,
0.12523,-0.135094,-0.610178,-0.0523982,0.156294,0.163969,0.264924,0.061899,-0.441485,0.621419,0.00052094,0.695395,-0.151635,0.0732088,0.052599,0.167884,0.0397241,0.170704,-0.161075,-0.0425832,-0.160299,-0.578494,0.930218,0.104385,0.0853905,0.0553753,-0.135615,0.0573539,0.217676,0.0648082,-0.12339,-0.603298,0.387541,-0.783317,-0.713586,-0.160888,-0.305,-0.0726306,-0.377538,-0.53281,0.607359,0.328698,-0.161098,0.0872627,0.68713,-0.185014,-0.558021,0.295514,-0.056031,-0.164152,-0.490714,0.175379,-0.31102,-1.11014,0.608166,0.0956655,-0.788872,-0.0297354,-0.0110955,-0.110863,0.147763,0.112272,0.0640663,0.122981,0.126594,0.218827,0.0379465,-0.60409,-0.21502,0.241067,-0.328635,0.0652464,0.789005,0.0332527,0.0333608,-0.285013,0.564296,0.303271,0.00484451,-0.651649,
-0.0453974,-0.164824,0.412997,0.177949,0.0136748,-0.16824,0.409272,-0.00655793,0.0442506,0.507963,0.128652,0.372172,-0.164187,-0.0880836,0.237322,0.00941167,0.0910707,-0.1759,0.0652657,0.0138987,0.341063,0.0820116,0.219472,0.0390433,0.62887,0.0289584,-0.028321,-0.000857299,0.121359,0.0453169,0.39095,0.351121,0.280105,0.0446244,0.0750992,-0.149086,0.270546,-0.0668892,-0.169264,0.0136409,-0.177971,0.528328,0.193985,0.0174093,0.0743691,0.0567071,0.352055,-0.0590722,-0.155151,-0.164898,0.301052,0.250132,0.0999341,0.321066,0.172898,0.238313,0.454881,0.0459831,0.0227718,0.149069,-0.0439003,-0.0794058,0.0128802,0.0925873,-0.072444,0.650532,0.123449,0.15491,-0.00332539,0.378652,-0.00190592,-0.111255,0.0883546,0.176738,0.255245,0.270087,0.289659,0.110885,0.156227,0.450103,
-0.0317249,0.012807,0.0546625,0.117665,-0.108462,0.0282337,0.341761,0.0123461,-0.194513,0.0442278,0.157699,-0.148721,0.0158172,0.033681,0.194403,0.159309,0.0752814,0.0148635,0.180015,0.137529,0.21867,0.123297,0.285984,-0.188399,0.347796,-0.0305692,-0.0119807,0.174094,-0.279504,-0.0715224,0.289358,0.306245,-0.00955151,0.75651,-0.0530746,-0.195731,-0.0677728,0.0209899,-0.267014,0.0127481,0.0838575,0.286009,0.0574984,-0.112895,-0.113058,-0.132212,-0.0906928,0.105822,0.240363,-0.126146,0.188917,0.227642,0.149114,0.0243186,0.108852,0.130944,0.133783,-0.140471,-0.0425877,0.202079,-0.0910346,0.107233,0.0382249,0.277836,0.0781387,0.223254,-0.0206665,0.0338075,0.139513,-0.213456,0.212785,0.0491424,0.236345,0.0771044,0.476653,-0.077055,-0.0141471,0.255042,-0.247189,-0.0663086,
-0.170918,0.0780589,-0.337421,-0.207883,-0.166828,0.177149,-0.390397,-0.0732677,0.0484749,-0.662518,0.0439355,-0.566602,-0.385495,-0.0321542,-0.00784908,-0.036669,0.0557534,-0.0722265,-0.159977,0.0187091,-0.175795,-0.37993,-0.00434814,-0.0206247,-0.891107,-0.0779698,-0.123293,-0.144074,0.0737745,-0.0681698,-0.566155,-0.624941,-0.318465,-0.156154,-0.691518,-0.0410127,-0.292857,-0.0202835,-0.302405,-0.31627,0.00194924,-0.486963,-0.408988,0.00531417,-0.172842,0.0576394,-0.648435,0.117182,-0.101757,-0.14693,-0.294254,-0.416347,-0.514748,-0.66646,-0.355765,0.212833,-0.436302,0.037863,0.0715998,-0.117234,-0.243516,-0.612736,0.142093,0.071418,0.103422,-0.224107,0.114543,-0.531877,0.0850875,-0.203479,-0.251825,0.11717,-0.283328,-0.17273,-0.141504,-0.635064,-0.801938,-0.411301,0.200694,-0.283126,
-0.0288233,0.0639439,-0.0573404,0.116917,0.100977,-0.165254,0.456917,0.177039,0.11429,0.060632,-0.108014,-0.0238755,0.149508,-0.120414,-0.0377084,0.0600176,0.00603532,-0.154716,-0.0396331,0.131362,-0.0340978,0.119179,-0.180953,0.0565218,0.378709,0.06623,0.0486489,0.0328231,0.260649,-0.097503,-0.00204949,0.513184,-0.154621,0.0378642,0.215775,-0.172967,0.00219282,0.142381,-0.0324932,0.289521,-0.0809255,0.209119,0.275925,0.0578614,-0.313512,0.0320386,0.158562,0.0710179,0.257703,-0.08318,0.0150136,0.549005,0.472616,0.237533,-0.125491,0.0306248,0.112915,-0.133266,0.0749639,0.143492,0.287101,0.275412,0.0365087,0.0548349,0.0736455,-0.449713,-0.0147578,0.291898,-0.0851973,-0.134023,-0.0696643,-0.0568023,-0.286852,0.0318227,-0.10751,0.222456,0.0167998,-0.108629,0.0594435,0.0941409,
0.0785918,-0.130001,-0.150706,-0.116874,0.0195601,-0.00272046,-0.301313,0.108081,-0.172771,-0.349558,-0.0585661,-0.0387152,-0.151666,0.122031,-0.0878069,0.0603984,0.27915,-0.355765,0.0716031,-0.0837247,-0.125767,-0.256853,-0.177233,-0.131874,-0.696144,-0.0723142,-0.128997,0.065707,0.00547994,0.0248278,-0.0753842,-0.262418,0.0873681,-0.180461,-0.698702,-0.0396233,-0.358069,-0.105287,-0.298778,-0.350039,0.167343,0.0149204,-0.220815,-0.0440998,-0.457698,0.0308567,-0.212355,-0.214417,-0.0126558,0.0696545,-0.0630365,-0.387749,-0.192746,-0.879932,-0.189358,-0.205036,-0.248065,0.088495,-0.112022,0.0181091,-0.11191,-0.422208,-0.0834045,-0.0132207,-0.162009,-0.113658,0.157618,-0.456876,-0.249764,-0.249725,-0.233335,0.145685,-0.03869,-0.126814,-0.0599575,-0.225534,-0.601739,-0.243119,0.0613519,0.21094,
-0.0551993,-0.132853,0.334985,-0.122505,-0.0515956,-0.0210948,0.379239,-0.132418,0.176704,0.357378,0.0873135,0.270839,0.0344147,-0.0897855,0.199447,0.0839338,-0.312541,0.0508089,-0.0383379,0.15457,0.269454,0.0713762,-0.175901,0.0897481,0.423796,-0.0883739,0.234736,-0.0107852,-0.0899563,0.105927,0.486715,0.205133,0.0865249,-0.0760671,0.360934,0.0121302,0.234391,0.0847292,0.0819082,0.208564,0.256456,0.204904,0.184184,-0.153885,0.333754,0.0400938,0.466515,0.00450461,-0.0660926,-0.332129,0.229807,0.323161,0.218312,0.323764,0.217475,-0.0483001,0.271376,0.0682497,-0.0956991,0.0880669,-0.0547176,0.053934,-0.0203664,0.00811506,-0.234261,0.0622543,0.103489,0.29291,-0.0506697,0.262798,0.401053,0.109187,0.0980833,-0.0941251,0.00392019,0.30332,0.266051,-0.0947598,0.121333,0.383277,
0.00985979,-0.0500625,-0.414913,0.00249228,-0.0391178,-0.179405,-0.675484,0.100807,-0.00477675,-1.10144,-0.00553302,-0.918197,-0.527044,-0.0395208,-0.54376,0.0285437,-0.218174,-0.0501371,0.0427309,-0.36137,0.0801175,-0.228476,-0.231138,-0.0215931,-1.3177,-0.039124,-0.180799,-0.0989737,-0.0196091,0.15869,-0.786179,-0.824434,-0.325798,-0.564885,-0.591752,-0.0568282,-0.59377,-0.0408234,-0.286257,-0.356385,-0.263775,-0.413409,-0.803125,-0.031861,-0.853839,-0.115946,-0.771919,-0.00606671,-0.372435,-0.144007,-0.413891,-0.739733,-0.780133,-0.881695,-0.725093,0.135146,-0.923911,-0.27449,0.105538,-0.0240574,-0.0901917,-0.956222,-0.0398423,0.184854,0.109097,-0.450178,0.134513,-0.830966,-0.197287,-0.171572,-0.388331,0.193634,-0.402845,0.105151,-0.173387,-0.380215,-1.31085,-0.685316,-0.0180301,-0.62106,
-0.0515682,0.0303072,0.684491,0.0399124,-0.0507283,0.00928947,-0.0181125,0.0663772,-0.00705553,0.0190505,-0.00955478,0.114462,0.172942,-0.126844,-0.0471925,0.0675741,-0.137975,-0.00380478,-0.0700936,0.0734824,-0.0942623,0.436664,0.0106008,-0.321434,0.339137,0.18143,-0.0471136,-0.0880489,0.177075,-0.104727,0.297114,-0.355578,0.69394,-1.10273,-0.73085,0.0174038,-0.218587,-0.153521,0.0122384,-0.422167,0.733297,0.0541926,0.196352,-0.0357012,-0.0895493,0.0119543,0.136351,0.0287814,0.427499,0.103039,0.147091,0.263339,0.236335,0.102042,-0.323296,0.202693,0.242893,-0.174238,-0.0177453,0.0966444,0.013694,0.598528,0.047804,0.137299,-0.0110694,0.041265,-0.0149788,-0.108443,-0.488899,0.0452049,0.145063,-0.0476264,0.203315,-0.0111709,0.387723,0.685067,-0.139963,-0.236846,-0.0561516,-0.079176,
-0.119434,0.0479798,-0.0985683,-0.0857391,-0.197124,-0.178128,0.402993,-0.0220478,-0.236341,0.517358,0.0249775,0.497556,0.286329,0.0668951,0.423043,0.0559094,0.124151,0.258897,0.069053,-0.00421716,0.0640018,0.200362,-0.0397641,0.0215578,0.506808,0.118047,0.0492234,0.258784,0.023674,-0.0356829,0.0846995,0.281313,0.433194,0.453966,0.613293,0.0671944,0.112318,-0.107261,-0.00254535,0.131971,-0.186698,0.0100284,0.134764,0.0193265,0.258354,-0.136204,0.58506,-0.0227152,0.0216172,0.107912,0.092014,0.000974611,0.304341,0.213022,0.251398,0.0342784,0.409328,0.162725,0.264032,0.00714024,-0.270932,0.00560167,-0.0192675,0.122369,-0.0151146,0.143041,-0.0490394,-0.0301405,-0.0392222,-0.0561178,0.28146,-0.153466,0.207493,-0.0968139,-0.0716576,0.659708,0.258783,0.52825,-0.0533966,0.520806,
-0.12858,-0.00176388,-0.326729,-0.0107923,0.170115,0.0220936,0.595131,0.216548,0.126921,0.450535,0.0714964,0.496182,0.61468,0.0195182,0.690096,0.0921014,-0.168525,-0.00832941,0.288389,-0.169181,0.181872,-0.180347,-0.170579,0.122502,0.287724,0.222306,0.111738,0.263083,0.155186,0.0682349,-0.0402111,0.198966,-0.109559,0.097341,0.833283,0.350162,0.415457,-0.395777,0.339071,-0.0117781,-0.0811865,0.293711,0.191946,0.0291104,0.407495,-0.0128185,0.608622,-0.0200933,0.796926,0.401152,-0.119302,0.3771,0.377816,0.207765,0.237287,-0.061438,0.0940991,0.07042,0.0919592,0.192456,-0.158324,-0.0382595,-0.218328,-0.0442178,-0.0907993,0.131958,-0.033689,-0.0810738,0.213681,-0.28407,-0.0645065,0.0812068,-0.099978,-0.0452742,-0.381274,0.463296,0.440261,0.639942,0.0142981,0.446066,
0.216051,-0.0858111,0.347763,-0.00216332,-0.0074669,0.0821549,0.43174,0.058974,0.143987,0.339398,0.0513435,0.138984,0.368469,0.268871,-0.164138,-0.0604169,-0.0818652,0.169417,-0.0466868,-0.0311468,-0.294646,0.251051,0.129371,0.303528,0.531921,-0.100637,0.0520139,-0.141717,0.00659522,-0.00480515,0.152764,0.286524,-0.0254193,-0.122763,0.437732,-0.100901,0.110836,0.185841,0.438363,0.209342,0.0318773,-0.178593,0.192302,-0.116367,0.266021,0.183779,0.0383057,-0.0843602,0.268943,-0.338701,0.425023,0.443415,0.237654,0.44736,0.148163,-0.0650831,0.368672,0.0425803,0.145971,-0.0218781,0.122183,0.241358,0.0231786,0.0358982,0.116321,0.0707579,-0.00828614,0.393068,0.121603,0.147484,-0.0106997,-0.181718,-0.471207,-0.0392842,0.0422678,-0.317546,0.444321,-0.157254,0.144856,-0.465885,
-0.0424034,-0.141324,0.122208,0.0592371,0.109167,-0.0415541,0.270017,0.0531382,0.133983,0.251555,0.00393794,0.0697674,0.0730623,0.147059,0.122019,0.157259,-0.0633063,0.19042,0.0968768,-0.00226339,0.336779,0.263099,0.151509,0.0255065,0.227606,0.025882,0.138383,-0.0371181,0.120553,-0.0162399,0.0807625,0.266269,-0.151991,0.160414,0.459387,-0.184835,0.169517,0.0901477,0.016253,0.32561,-0.435597,0.320596,0.0654323,0.0583593,0.153241,-0.0406248,-0.00396355,0.067435,0.0796767,-0.0237674,0.589212,0.344719,0.340398,0.262404,0.146251,0.206524,-0.00126354,-0.0734927,-0.0585718,-0.197026,0.0100096,0.0269431,-0.0656079,-0.0649055,0.118703,0.703175,0.102385,0.145024,0.163315,0.390013,-0.0386315,0.134595,-0.0800562,0.0873333,-0.0919012,-0.003994,0.229709,0.274306,-0.0944149,0.156118,
