0.0444283,-0.598882,0.117638,-1.87138,-0.0594379,-0.441757,-0.686921,-0.827944,-0.118705,0.339371,-0.551275,0.968623,0.0133921,-1.08257,1.20919,-0.634354,-2.55912,-0.830147,-0.545328,-0.943993,-0.368673,0.826428,0.264222,-0.475817,1.00246,-0.216006,-0.315193,-0.792099,-1.05935,-2.30144,0.415416,-1.44674,0.666431,1.40199,0.331411,-0.730579,-0.0421104,0.224077,0.0269645,-0.0637252,-0.422739,0.313576,1.32454,-1.68599,0.116031,-0.847634,-0.827266,-0.582398,0.541275,-0.664587,1.14343,-0.577708,-0.00327438,-0.0912675,0.373786,-2.05006,-0.350181,-1.45473,-1.71463,-1.11552,-1.73985,-0.0331885,-1.5785,-1.47975,-0.802766,1.99113,-0.183615,-0.155122,-0.348223,0.42265,-0.557924,-1.05308,0.311154,-2.08402,-0.11279,-0.533365,1.66534,-0.805786,-3.20464,-0.721524,
-1.54412,1.50574,-1.5266,-0.0687757,0.75744,-0.307678,-1.43643,1.90705,-0.632127,-0.853882,-1.17241,-1.65189,0.0494361,-0.203865,-2.07334,-1.60127,2.262,-1.16632,-1.17511,0.686029,1.81572,2.13139,-1.94024,-1.67578,-1.07071,-0.0696187,-1.01961,-0.706418,-0.839072,-1.01939,-0.801476,-0.856323,0.647464,-0.651819,-0.089629,0.710147,0.378413,1.18035,-0.457081,
